2 -7 -8 1 -11 -7 -11 3 4 -5 0 -8 2 2 -7 0 1 1 -2 0 -10 -8 2 2 2 -1 2 -13 -5 2 0 3 2 0 2 3 -7 -7 -7 -6 -6 -7 0 -5 3 -12 0 -11 2 -1 1 2 -11 1 -9 1 0 1 4 -9 4 1 2 1 -2 -9 -6 2 -8 -6 -9 2 0 -13 -8 -10 1 1 -3 -6 -5 -4 -6 1 -3 -3 2 1 -2 -2 -5 -5 2 0 -9 -8 -4 1 -3 0 
-3 -2 1 -9 2 2 3 1 0 1 3 -5 -8 -8 2 2 0 -2 -4 -9 2 -3 -4 -7 1 3 -3 -6 -4 -10 2 -1 1 -7 -6 -3 2 2 0 7 4 0 0 3 -7 3 -1 0 -7 1 0 -8 3 1 2 0 2 -11 4 2 -1 -6 -3 -10 0 3 -9 -6 -5 1 -9 -14 -10 0 4 -7 -5 -6 3 2 4 3 5 -2 -6 3 -2 -9 -1 1 2 5 -5 -3 -5 3 1 3 6 0 
0 2 -15 -4 -14 -1 1 0 3 1 -7 -4 0 -1 2 3 0 1 -4 2 0 -3 1 0 -2 -6 2 -7 -3 -2 -10 0 2 2 3 -7 -9 2 -11 2 0 2 0 -9 2 5 0 1 0 1 -11 1 -6 1 3 1 1 0 0 4 -4 -2 -1 0 1 -5 0 1 2 3 -2 -9 0 -11 -7 4 -2 1 -4 3 -9 4 3 1 0 3 4 0 2 1 2 -4 1 4 -8 4 2 -2 -5 1 
-1 2 2 -1 -10 -2 4 -7 1 1 -1 5 0 -4 -1 -2 -1 1 -4 -1 1 2 -5 -3 1 -6 1 5 4 -7 -9 -4 1 1 0 -2 -5 1 3 2 -6 1 -1 -1 3 3 1 1 -11 -1 0 0 4 1 2 -5 0 -2 1 2 -1 2 3 -5 1 -7 0 1 -4 2 1 -6 -6 3 -8 1 4 2 3 0 5 -4 -8 0 -2 -3 3 1 1 -8 0 5 -8 3 1 2 2 -5 -10 0 
0 1 3 1 0 5 -3 -6 -11 0 3 0 -7 0 1 1 -1 -13 4 2 0 2 2 -7 -9 2 -11 1 -3 2 3 -10 -6 3 2 3 3 1 0 -8 2 -8 -1 -7 -8 -6 0 0 4 1 1 3 0 -6 0 2 2 1 -10 -7 -12 -10 -9 1 -5 -6 2 0 2 -8 2 2 3 3 -1 3 -8 -6 4 -7 1 -8 3 -6 0 -3 -10 -7 -11 3 1 3 4 3 2 -7 2 1 5 -8 
1 -7 0 0 5 3 3 -1 2 0 -9 5 1 2 1 1 0 1 -7 1 -8 1 0 3 0 -6 1 5 -4 2 2 1 -8 -2 1 2 2 -3 3 3 2 0 0 0 -3 -2 -1 1 1 -13 1 -1 4 1 -8 -9 -13 -1 2 -2 2 3 2 0 0 5 2 1 -9 -1 2 1 -2 3 4 3 2 -5 -11 1 -1 3 -8 1 0 -10 -5 1 3 -4 -9 -5 -10 -6 2 2 -3 -8 7 0 
-7 2 -5 1 5 -5 -12 1 -5 1 2 -13 -8 -8 2 3 1 -5 -1 2 -8 -8 2 3 -1 3 -7 -11 -9 3 3 3 -10 4 2 2 0 2 -9 -4 -2 -10 0 -6 2 -5 0 1 0 -8 0 2 -9 2 -12 3 -5 1 2 -3 0 -4 0 1 -16 6 -3 0 4 -10 -5 1 4 -5 4 -8 1 4 0 1 -11 3 -4 0 -14 5 -9 0 3 -7 -4 3 -2 -9 -9 -8 -8 3 -2 1 
2 -1 0 0 -4 6 -2 -7 1 -2 3 0 2 2 -10 -2 0 1 3 -6 -2 2 -8 -7 -3 0 1 -3 4 -4 -4 -6 2 1 -5 4 -1 1 -7 2 -1 2 0 0 2 4 0 -5 2 1 1 -6 2 -8 3 2 1 0 -5 2 4 -4 2 -4 1 -6 -6 -8 2 3 1 3 -1 -6 2 -5 2 0 3 -1 -2 -1 0 -11 1 3 4 -5 -3 3 0 3 2 0 0 5 0 1 -2 -8 
-6 2 -9 1 -2 -1 -1 2 -10 1 -9 -8 1 0 2 -7 0 1 -10 -7 2 2 1 1 2 2 1 -10 -8 3 1 1 1 -5 -3 -3 2 -1 2 -8 3 1 1 2 -5 -4 0 1 -7 0 1 -3 -11 1 0 -5 0 1 -7 2 -3 0 -4 0 1 1 2 2 2 1 2 -4 -8 0 0 -9 -4 -1 1 1 -7 -3 -4 1 -2 -4 -1 2 -3 -8 2 -5 -5 -4 2 -10 2 1 -7 0 
2 2 3 1 0 -6 2 0 -2 -10 3 4 1 1 0 -12 0 0 3 2 2 2 -5 1 -1 1 -1 4 4 -4 -1 0 1 -10 -10 -10 2 -12 2 -5 -7 1 -1 3 2 -11 0 0 3 1 1 2 3 -5 -5 1 1 1 -3 -11 -2 1 -1 1 0 -3 1 0 0 -14 1 1 3 3 0 2 -3 3 -2 -12 5 -10 2 -2 1 -7 -4 0 -8 2 2 -4 3 -6 2 -15 2 2 -11 -4 
